encog,BasicNetwork,java,3.2.0,1,1493701876671
[BASIC]
[BASIC:PARAMS]
[BASIC:NETWORK]
beginTraining=0
connectionLimit=0
contextTargetOffset=0,0,0
contextTargetSize=0,0,0
endTraining=2
hasContext=f
inputCount=8
layerCounts=4,16,9
layerFeedCounts=4,15,8
layerContextCount=0,0,0
layerIndex=0,4,20
output=0.0019507688,0.9606647213,0,0.3543472368,0.9927446834,0.9999959513,0,0.9728011579,0.9460494769,0.9896996821,0.8983208747,0.2048545816,0.0005533135,0.997751474,0.0433786245,0.9994342047,0.0000017662,0.9999999359,0.9968514648,1,0.6666666667,0.6666666667,1,0.6533333333,0.5,0,1,0,1
outputCount=4
weightIndex=0,64,199
weights=3.7143830749,-5.1716501123,-5204.4864018823,-18.7149398433,6.740779856,-6.2349368763,7.2888443633,-22.7900143788,-147.4457062259,7.6937491459,15.0717452876,9.5289103029,133.8385278081,-2.2036197207,-4.1804557523,-0.034446854,5.35883267,6.0944021759,-134.1806944622,1.4086593359,-8.4016262773,1.1111598199,8.8670207834,-32.1761370752,158.0478750396,11.4074851452,-38.4865052655,-5.5177307602,-20389.9699685632,-7.4617419795,-0.0062097297,-0.8957737509,0.2626580711,0.2929138757,-6.0360191699,-1.5082041172,2.0471741955,-1.5440241284,0.2596448741,153.2710105616,66.4744572149,-0.2942901618,160.7364128887,-51.8835899353,-216.8991346172,-0.949670862,-30.2372666364,-1.448853158,-14.9060086721,-0.3847385904,-5926.9936783924,0.8775295455,18.3463188525,0.428923717,-7.8639338751,-0.1190955001,-194.8887499662,-7.5316647746,-13.2298669512,2.843475585,-7879.3828505032,4.5053215784,4.0384835899,-0.1259285076,-0.1378408598,6.3412882632,5.8785076399,-0.6733996965,0.2692992257,-0.4150321145,0.8801016459,-0.6787956912,-5.6701970492,-0.8879814752,7.0068721712,9.7582553607,2.9545761467,-3.7750896783,0.605987912,0.4785815975,-3.5014163087,-1.9417687574,-6.650283577,-1015.4688801409,-1.0484163406,-60.9359859529,18.861372041,-668.9150641947,-5.3936654031,-1887.7716938155,1.3130106432,0.5602433744,5.2896527489,1.8934299461,0.5105679798,-0.3480607708,1.4905569992,1.9122982493,0.1689669008,-4.2881943398,-8.2783369315,3.5164700122,2.6613196249,2.0342866145,-0.32935498,-0.4248700006,0.1149470136,-0.6947125201,2.098149024,3.2002609423,4.7692745466,3.0620062452,3.7998829965,-2.1551117747,-7.2270203392,-5.2281545184,4.5164902378,0.0133170619,-1.4314480357,4.2280891339,2.0988836188,-3.3782014001,4.9880597402,-1.2335217167,0.0346547253,-5.152469451,-2.1061987303,-5.0306164624,0.4931826505,0.893013769,0.84324295,-0.8049762589,-0.6860281288,-0.2886609155,0.1807806769,0.9159477787,-6.3554512204,-1.8103557592,-2.1988884193,-0.7912007982,-0.0749473022,0.2898909339,-0.2410684671,-0.2360196733,0.9391874022,-1.4322077354,0.5578303068,-0.5490489543,13.1795206361,-2.2349634772,0.1290093482,2.3664772028,3.8243984678,-2.6324190342,-4.7487747543,-1.5373107222,-0.2950422906,-0.8561687465,-0.8547441949,0.0832882975,0.3573806965,0.1509070547,2.0216800449,8.4970410674,-0.6819553066,-0.3080466498,-0.2453963311,-1.5481658224,-0.7136698692,3.9277552888,-0.4047072063,-0.4186450744,-4.6855374543,-6.0986231737,-4.2989040502,4.0069360867,0.5450130419,-0.0293730316,-1.8808042655,0.1806097532,-2.7679155285,1.5403715056,12.599413211,0.7945296497,-0.3051155308,3.6637848966,-2.1057954145,6.2698949809,-6.0266341952,-1.5613853334,19.1492506819,-13.1619984248,0.0407626582,0.8094181964,-0.538484634,-2.4507665318,-0.4755405064,0.6189520632,1.9413632143
biasActivation=0,1,1
[BASIC:ACTIVATION]
"org.encog.engine.network.activation.ActivationSigmoid"
"org.encog.engine.network.activation.ActivationSigmoid"
"org.encog.engine.network.activation.ActivationLinear"
